SVM-light Version V6.02
0 # kernel type
3 # kernel parameter -d 
1 # kernel parameter -g 
1 # kernel parameter -s 
1 # kernel parameter -r 
empty# kernel parameter -u 
10 # highest feature index 
1600 # number of training documents 
300 # number of support vectors plus 1 
-0.082243581 # threshold b, each following line is a SV (starting with alpha*y)
-5.7181411557303651709005531955654e-05 1:72 2:65 3:88 4:1 5:3 6:1 7:2 8:2 9:1 10:1 #
5.7181411557303651709005531955654e-05 1:69 2:65 3:73 4:2 5:2 6:1 7:1 8:2 9:1 10:1 #
-5.7181411557303651709005531955654e-05 1:68 2:65 3:67 4:2 5:2 6:3 7:2 8:2 9:1 10:1 #
5.7181411557303651709005531955654e-05 1:69 2:83 3:79 4:1 5:3 6:1 7:1 8:2 9:1 10:1 #
-5.7181411557303651709005531955654e-05 1:66 2:88 3:73 4:1 5:3 6:1 7:1 8:2 9:1 10:1 #
5.7181411557303651709005531955654e-05 1:69 2:65 3:73 4:2 5:3 6:3 7:2 8:2 9:1 10:1 #
-5.7181411557303651709005531955654e-05 1:69 2:65 3:67 4:2 5:2 6:1 7:2 8:2 9:1 10:1 #
5.7181411557303651709005531955654e-05 1:69 2:75 3:67 4:2 5:3 6:3 7:2 8:2 9:2 10:1 #
-5.7181411557303651709005531955654e-05 1:66 2:88 3:73 4:1 5:3 6:1 7:1 8:2 9:1 10:1 #
5.7181411557303651709005531955654e-05 1:69 2:65 3:67 4:2 5:1 6:3 7:2 8:2 9:1 10:1 #
-5.7181411557303651709005531955654e-05 1:69 2:65 3:67 4:1 5:3 6:1 7:2 8:2 9:1 10:1 #
5.7181411557303651709005531955654e-05 1:69 2:83 3:79 4:2 5:3 6:1 7:2 8:2 9:1 10:1 #
-5.7181411557303651709005531955654e-05 1:72 2:65 3:88 4:2 5:3 6:2 7:2 8:2 9:1 10:1 #
5.7181411557303651709005531955654e-05 1:69 2:83 3:73 4:1 5:3 6:1 7:2 8:2 9:1 10:1 #
-5.7181411557303651709005531955654e-05 1:66 2:88 3:73 4:2 5:2 6:1 7:2 8:2 9:1 10:1 #
5.7181411557303651709005531955654e-05 1:67 2:82 3:79 4:1 5:3 6:1 7:1 8:2 9:1 10:1 #
-5.7181411557303651709005531955654e-05 1:66 2:88 3:73 4:1 5:2 6:1 7:1 8:2 9:1 10:1 #
5.7181411557303651709005531955654e-05 1:69 2:65 3:79 4:2 5:2 6:1 7:2 8:2 9:1 10:1 #
-5.7181411557303651709005531955654e-05 1:72 2:65 3:88 4:1 5:2 6:1 7:1 8:2 9:1 10:1 #
5.7181411557303651709005531955654e-05 1:68 2:75 3:73 4:1 5:3 6:1 7:2 8:2 9:1 10:1 #
-5.7181411557303651709005531955654e-05 1:68 2:65 3:67 4:2 5:3 6:1 7:2 8:2 9:1 10:1 #
5.7181411557303651709005531955654e-05 1:70 2:75 3:73 4:1 5:2 6:1 7:2 8:2 9:1 10:1 #
-5.7181411557303651709005531955654e-05 1:69 2:82 3:67 4:2 5:3 6:1 7:1 8:2 9:1 10:1 #
5.7181411557303651709005531955654e-05 1:68 2:65 3:73 4:1 5:2 6:1 7:2 8:2 9:1 10:1 #
-5.7181411557303651709005531955654e-05 1:68 2:65 3:67 4:1 5:2 6:1 7:2 8:2 9:1 10:1 #
5.7181411557303651709005531955654e-05 1:70 2:75 3:67 4:2 5:2 6:1 7:2 8:2 9:1 10:1 #
-5.7181411557303651709005531955654e-05 1:70 2:75 3:67 4:2 5:3 6:1 7:2 8:2 9:2 10:1 #
5.7181411557303651709005531955654e-05 1:69 2:65 3:73 4:2 5:3 6:1 7:2 8:2 9:1 10:1 #
-5.7181411557303651709005531955654e-05 1:72 2:65 3:88 4:1 5:1 6:1 7:2 8:2 9:1 10:1 #
5.7181411557303651709005531955654e-05 1:70 2:65 3:73 4:1 5:2 6:1 7:2 8:2 9:1 10:1 #
-5.7181411557303651709005531955654e-05 1:69 2:72 3:67 4:2 5:3 6:1 7:2 8:2 9:1 10:1 #
5.7181411557303651709005531955654e-05 1:67 2:83 3:79 4:1 5:2 6:1 7:1 8:2 9:1 10:1 #
-5.7181411557303651709005531955654e-05 1:66 2:88 3:73 4:1 5:1 6:1 7:2 8:2 9:1 10:1 #
5.7181411557303651709005531955654e-05 1:69 2:65 3:67 4:1 5:3 6:1 7:1 8:2 9:1 10:1 #
-5.7181411557303651709005531955654e-05 1:70 2:65 3:73 4:2 5:2 6:3 7:2 8:2 9:1 10:1 #
5.7181411557303651709005531955654e-05 1:68 2:83 3:79 4:1 5:2 6:1 7:1 8:2 9:1 10:1 #
-3.810381434088405683269229484722e-05 1:67 2:65 3:79 4:1 5:3 6:1 7:1 8:2 9:1 10:1 #
5.7181411557303651709005531955654e-05 1:69 2:83 3:73 4:2 5:2 6:1 7:2 8:2 9:1 10:1 #
-5.7181411557303651709005531955654e-05 1:66 2:88 3:73 4:1 5:2 6:1 7:1 8:2 9:1 10:1 #
5.7181411557303651709005531955654e-05 1:69 2:65 3:79 4:1 5:1 6:1 7:2 8:2 9:1 10:1 #
-5.7181411557303651709005531955654e-05 1:72 2:65 3:88 4:1 5:1 6:1 7:2 8:2 9:1 10:1 #
5.7181411557303651709005531955654e-05 1:67 2:82 3:79 4:1 5:2 6:1 7:1 8:2 9:1 10:1 #
-5.7181411557303651709005531955654e-05 1:66 2:88 3:73 4:1 5:2 6:1 7:2 8:2 9:1 10:1 #
5.7181411557303651709005531955654e-05 1:68 2:65 3:73 4:2 5:3 6:1 7:2 8:2 9:1 10:1 #
-5.7181411557303651709005531955654e-05 1:70 2:65 3:73 4:2 5:3 6:1 7:2 8:2 9:1 10:1 #
5.7181411557303651709005531955654e-05 1:68 2:75 3:73 4:2 5:3 6:1 7:2 8:2 9:1 10:1 #
-5.7181411557303651709005531955654e-05 1:70 2:75 3:67 4:2 5:3 6:1 7:2 8:2 9:2 10:1 #
5.7181411557303651709005531955654e-05 1:70 2:75 3:73 4:2 5:3 6:1 7:2 8:2 9:2 10:1 #
-5.7181411557303651709005531955654e-05 1:68 2:65 3:73 4:2 5:2 6:3 7:2 8:2 9:1 10:1 #
5.7181411557303651709005531955654e-05 1:69 2:72 3:73 4:1 5:3 6:1 7:2 8:2 9:1 10:1 #
-5.7181411557303651709005531955654e-05 1:66 2:88 3:73 4:1 5:3 6:1 7:1 8:2 9:1 10:1 #
5.7181411557303651709005531955654e-05 1:69 2:65 3:73 4:2 5:2 6:1 7:2 8:2 9:1 10:1 #
-5.7181411557303651709005531955654e-05 1:70 2:65 3:73 4:2 5:2 6:1 7:2 8:2 9:1 10:1 #
5.7181411557303651709005531955654e-05 1:68 2:65 3:73 4:1 5:3 6:1 7:2 8:2 9:1 10:1 #
-5.7181411557303651709005531955654e-05 1:69 2:65 3:73 4:2 5:3 6:1 7:2 8:2 9:1 10:1 #
5.7181411557303651709005531955654e-05 1:70 2:65 3:73 4:2 5:2 6:1 7:2 8:2 9:1 10:1 #
-5.7181411557303651709005531955654e-05 1:70 2:65 3:73 4:1 5:2 6:1 7:2 8:2 9:1 10:1 #
5.7181411557303651709005531955654e-05 1:66 2:88 3:79 4:2 5:2 6:1 7:2 8:2 9:1 10:1 #
-5.7181411557303651709005531955654e-05 1:72 2:83 3:88 4:2 5:3 6:1 7:2 8:2 9:1 10:1 #
5.7181411557303651709005531955654e-05 1:70 2:65 3:67 4:2 5:3 6:1 7:2 8:2 9:2 10:1 #
-5.7181411557303651709005531955654e-05 1:67 2:65 3:73 4:2 5:3 6:1 7:2 8:2 9:1 10:1 #
5.7181411557303651709005531955654e-05 1:72 2:83 3:88 4:1 5:2 6:1 7:1 8:2 9:1 10:1 #
-5.7181411557303651709005531955654e-05 1:66 2:88 3:73 4:1 5:2 6:1 7:1 8:2 9:1 10:1 #
5.7181411557303651709005531955654e-05 1:68 2:65 3:79 4:2 5:3 6:3 7:2 8:2 9:1 10:1 #
-5.7181411557303651709005531955654e-05 1:72 2:65 3:88 4:1 5:3 6:1 7:2 8:1 9:1 10:1 #
5.7181411557303651709005531955654e-05 1:70 2:83 3:73 4:1 5:3 6:1 7:2 8:2 9:1 10:1 #
-5.7181411557303651709005531955654e-05 1:69 2:75 3:67 4:1 5:3 6:1 7:2 8:2 9:1 10:1 #
5.7181411557303651709005531955654e-05 1:67 2:83 3:79 4:1 5:3 6:1 7:2 8:2 9:1 10:1 #
-5.7181411557303651709005531955654e-05 1:66 2:88 3:79 4:2 5:2 6:1 7:2 8:2 9:1 10:1 #
5.7181411557303651709005531955654e-05 1:68 2:65 3:79 4:1 5:2 6:1 7:2 8:2 9:1 10:1 #
-5.7181411557303651709005531955654e-05 1:72 2:65 3:88 4:1 5:3 6:1 7:1 8:2 9:1 10:1 #
5.7181411557303651709005531955654e-05 1:69 2:83 3:79 4:1 5:2 6:1 7:1 8:2 9:1 10:1 #
-5.7181411557303651709005531955654e-05 1:66 2:88 3:73 4:1 5:3 6:1 7:2 8:2 9:1 10:1 #
5.7181411557303651709005531955654e-05 1:69 2:65 3:79 4:1 5:3 6:1 7:1 8:2 9:1 10:1 #
-5.7181411557303651709005531955654e-05 1:70 2:65 3:73 4:1 5:1 6:1 7:2 8:2 9:1 10:1 #
5.7181411557303651709005531955654e-05 1:67 2:82 3:73 4:1 5:3 6:1 7:1 8:2 9:1 10:1 #
-5.7181411557303651709005531955654e-05 1:68 2:65 3:73 4:1 5:3 6:1 7:1 8:2 9:1 10:1 #
5.7181411557303651709005531955654e-05 1:67 2:82 3:73 4:1 5:2 6:1 7:1 8:2 9:1 10:1 #
-5.7181411557303651709005531955654e-05 1:66 2:88 3:73 4:1 5:3 6:1 7:1 8:2 9:1 10:1 #
5.7181411557303651709005531955654e-05 1:70 2:65 3:73 4:2 5:2 6:1 7:2 8:2 9:1 10:1 #
-5.7181411557303651709005531955654e-05 1:70 2:65 3:73 4:2 5:2 6:1 7:2 8:2 9:1 10:1 #
5.7181411557303651709005531955654e-05 1:68 2:82 3:73 4:1 5:3 6:1 7:1 8:2 9:1 10:1 #
-5.7181411557303651709005531955654e-05 1:66 2:88 3:73 4:1 5:3 6:1 7:1 8:2 9:1 10:1 #
5.7181411557303651709005531955654e-05 1:70 2:65 3:73 4:1 5:2 6:1 7:2 8:2 9:1 10:1 #
-5.7181411557303651709005531955654e-05 1:69 2:65 3:73 4:1 5:3 6:1 7:2 8:2 9:1 10:1 #
5.7181411557303651709005531955654e-05 1:67 2:75 3:79 4:1 5:2 6:1 7:1 8:2 9:1 10:1 #
-5.7181411557303651709005531955654e-05 1:72 2:65 3:88 4:1 5:2 6:1 7:1 8:2 9:1 10:1 #
5.7181411557303651709005531955654e-05 1:69 2:75 3:67 4:1 5:3 6:1 7:2 8:2 9:2 10:1 #
-5.7181411557303651709005531955654e-05 1:66 2:88 3:73 4:1 5:3 6:1 7:1 8:2 9:1 10:1 #
5.7181411557303651709005531955654e-05 1:69 2:65 3:73 4:2 5:3 6:1 7:1 8:2 9:1 10:1 #
-5.7181411557303651709005531955654e-05 1:69 2:65 3:73 4:2 5:2 6:1 7:2 8:2 9:1 10:1 #
5.7181411557303651709005531955654e-05 1:68 2:75 3:73 4:2 5:3 6:1 7:2 8:2 9:1 10:1 #
-5.7181411557303651709005531955654e-05 1:69 2:65 3:73 4:1 5:3 6:1 7:1 8:2 9:1 10:1 #
5.7181411557303651709005531955654e-05 1:69 2:75 3:73 4:2 5:2 6:1 7:2 8:2 9:1 10:1 #
-5.7181411557303651709005531955654e-05 1:70 2:83 3:73 4:2 5:2 6:1 7:2 8:2 9:1 10:1 #
5.7181411557303651709005531955654e-05 1:68 2:65 3:73 4:2 5:3 6:1 7:1 8:2 9:1 10:1 #
-5.7181411557303651709005531955654e-05 1:68 2:65 3:73 4:2 5:3 6:1 7:2 8:2 9:1 10:1 #
5.7181411557303651709005531955654e-05 1:68 2:75 3:73 4:2 5:3 6:2 7:2 8:2 9:1 10:1 #
-5.7181411557303651709005531955654e-05 1:68 2:65 3:73 4:2 5:3 6:1 7:1 8:2 9:1 10:1 #
5.7181411557146632129375318775999e-05 1:68 2:65 3:73 4:2 5:2 6:1 7:2 8:2 9:1 10:1 #
-5.7181411557303651709005531955654e-05 1:68 2:65 3:73 4:2 5:2 6:1 7:2 8:2 9:1 10:1 #
5.7181411557303651709005531955654e-05 1:69 2:65 3:73 4:2 5:3 6:1 7:2 8:2 9:1 10:1 #
-5.7181411557303651709005531955654e-05 1:68 2:65 3:73 4:2 5:3 6:1 7:2 8:2 9:1 10:1 #
5.7181411557303651709005531955654e-05 1:68 2:65 3:73 4:2 5:3 6:3 7:2 8:2 9:1 10:1 #
-5.7181411557303651709005531955654e-05 1:68 2:65 3:73 4:2 5:3 6:1 7:2 8:2 9:1 10:1 #
5.7181411557303651709005531955654e-05 1:68 2:65 3:67 4:2 5:3 6:1 7:1 8:2 9:1 10:1 #
-5.7181411557303651709005531955654e-05 1:68 2:65 3:73 4:2 5:2 6:1 7:2 8:2 9:1 10:1 #
5.7181411557303651709005531955654e-05 1:72 2:83 3:88 4:1 5:1 6:1 7:2 8:2 9:1 10:1 #
-5.7181411557303651709005531955654e-05 1:69 2:83 3:73 4:2 5:2 6:1 7:2 8:2 9:1 10:1 #
5.7181411557303651709005531955654e-05 1:72 2:65 3:88 4:1 5:2 6:1 7:1 8:1 9:1 10:1 #
-5.706563763729910476740769809112e-05 1:72 2:65 3:88 4:1 5:2 6:1 7:1 8:1 9:1 10:1 #
5.7181411557303651709005531955654e-05 1:66 2:88 3:73 4:1 5:2 6:1 7:2 8:2 9:1 10:1 #
-5.2683387683494231623626546934247e-05 1:66 2:88 3:79 4:1 5:1 6:1 7:1 8:2 9:1 10:1 #
5.7181411557303651709005531955654e-05 1:67 2:65 3:79 4:1 5:2 6:1 7:1 8:2 9:1 10:1 #
5.7181411557303651709005531955654e-05 1:68 2:65 3:79 4:1 5:3 6:1 7:1 8:2 9:1 10:1 #
5.7181411557303651709005531955654e-05 1:68 2:65 3:79 4:1 5:2 6:1 7:2 8:2 9:1 10:1 #
5.7181411557303651709005531955654e-05 1:69 2:65 3:79 4:2 5:2 6:1 7:2 8:2 9:1 10:1 #
-5.7181411557303651709005531955654e-05 1:69 2:65 3:73 4:1 5:3 6:1 7:2 8:2 9:1 10:1 #
5.7181411557303651709005531955654e-05 1:72 2:83 3:88 4:1 5:2 6:1 7:1 8:1 9:1 10:1 #
-5.7181411557303651709005531955654e-05 1:72 2:83 3:88 4:2 5:3 6:1 7:1 8:2 9:1 10:1 #
5.7181411557303651709005531955654e-05 1:70 2:65 3:67 4:2 5:2 6:1 7:2 8:2 9:1 10:1 #
-5.7181411557303651709005531955654e-05 1:69 2:65 3:73 4:1 5:2 6:1 7:2 8:2 9:1 10:1 #
5.7181411557303651709005531955654e-05 1:72 2:83 3:88 4:1 5:3 6:1 7:1 8:2 9:1 10:1 #
-5.7181411557303651709005531955654e-05 1:66 2:88 3:79 4:2 5:3 6:1 7:1 8:2 9:1 10:1 #
-5.7181411557303651709005531955654e-05 1:66 2:88 3:79 4:1 5:1 6:1 7:1 8:2 9:1 10:1 #
-5.7181411557303651709005531955654e-05 1:72 2:65 3:88 4:1 5:3 6:1 7:1 8:1 9:1 10:1 #
-5.7181411557303651709005531955654e-05 1:69 2:65 3:73 4:1 5:3 6:1 7:2 8:2 9:1 10:1 #
-5.7181411557303651709005531955654e-05 1:69 2:65 3:73 4:1 5:2 6:1 7:2 8:2 9:1 10:1 #
5.7181411557303651709005531955654e-05 1:66 2:88 3:79 4:1 5:3 6:1 7:1 8:2 9:1 10:1 #
5.7181411557303651709005531955654e-05 1:68 2:65 3:73 4:1 5:2 6:1 7:2 8:2 9:1 10:1 #
-5.7181411557303651709005531955654e-05 1:69 2:65 3:73 4:1 5:3 6:1 7:2 8:2 9:1 10:1 #
5.7181411557303651709005531955654e-05 1:66 2:88 3:79 4:1 5:2 6:1 7:2 8:2 9:1 10:1 #
-5.7181411557303651709005531955654e-05 1:66 2:88 3:79 4:1 5:1 6:1 7:1 8:2 9:1 10:1 #
5.7181411557303651709005531955654e-05 1:69 2:65 3:73 4:2 5:3 6:1 7:2 8:2 9:1 10:1 #
5.7181411557303651709005531955654e-05 1:69 2:65 3:73 4:1 5:3 6:1 7:2 8:2 9:1 10:1 #
5.7181411557303651709005531955654e-05 1:68 2:65 3:73 4:1 5:3 6:1 7:1 8:2 9:1 10:1 #
-5.7181411557303651709005531955654e-05 1:68 2:65 3:73 4:1 5:3 6:1 7:2 8:2 9:1 10:1 #
5.7181411557303651709005531955654e-05 1:66 2:88 3:79 4:1 5:3 6:1 7:1 8:2 9:1 10:1 #
5.7181411557303651709005531955654e-05 1:72 2:83 3:88 4:1 5:2 6:1 7:1 8:1 9:1 10:1 #
-5.7181411557303651709005531955654e-05 1:72 2:83 3:88 4:1 5:3 6:1 7:1 8:2 9:1 10:1 #
5.7181411557303651709005531955654e-05 1:69 2:65 3:73 4:1 5:2 6:1 7:2 8:2 9:1 10:1 #
-5.7181411557303651709005531955654e-05 1:67 2:65 3:73 4:1 5:2 6:1 7:2 8:2 9:1 10:1 #
-5.7181411557303651709005531955654e-05 1:66 2:88 3:79 4:2 5:2 6:1 7:1 8:2 9:1 10:1 #
5.7181411557303651709005531955654e-05 1:68 2:65 3:73 4:1 5:3 6:1 7:2 8:2 9:1 10:1 #
-5.7181411557303651709005531955654e-05 1:68 2:65 3:73 4:1 5:3 6:1 7:2 8:2 9:1 10:1 #
5.7181411557303651709005531955654e-05 1:72 2:83 3:88 4:2 5:2 6:1 7:1 8:1 9:1 10:1 #
-5.7181411557303651709005531955654e-05 1:72 2:83 3:88 4:2 5:2 6:1 7:1 8:1 9:1 10:1 #
5.7181411557303651709005531955654e-05 1:68 2:82 3:67 4:1 5:3 6:1 7:2 8:2 9:1 10:1 #
-5.7181411557303651709005531955654e-05 1:69 2:83 3:73 4:2 5:3 6:1 7:2 8:2 9:1 10:1 #
5.7181411557303651709005531955654e-05 1:72 2:82 3:88 4:1 5:1 6:1 7:1 8:2 9:1 10:1 #
-5.7181411557303651709005531955654e-05 1:72 2:83 3:88 4:1 5:1 6:1 7:1 8:2 9:1 10:1 #
5.7181411557303651709005531955654e-05 1:68 2:82 3:67 4:2 5:3 6:1 7:1 8:2 9:1 10:1 #
5.7181411557303651709005531955654e-05 1:68 2:65 3:73 4:2 5:2 6:1 7:2 8:2 9:1 10:1 #
-5.7181411557303651709005531955654e-05 1:68 2:65 3:73 4:1 5:3 6:1 7:2 8:2 9:1 10:1 #
5.7181411557303651709005531955654e-05 1:72 2:83 3:88 4:1 5:3 6:1 7:1 8:2 9:1 10:1 #
5.7181411557303651709005531955654e-05 1:72 2:83 3:88 4:1 5:3 6:1 7:2 8:2 9:1 10:1 #
-5.7181126059013820395193761214614e-05 1:66 2:88 3:79 4:1 5:1 6:1 7:2 8:2 9:1 10:1 #
5.7181411557303651709005531955654e-05 1:68 2:65 3:79 4:1 5:3 6:1 7:1 8:2 9:1 10:1 #
-5.7181411557303651709005531955654e-05 1:72 2:65 3:88 4:1 5:3 6:1 7:1 8:2 9:1 10:1 #
5.7181411557303651709005531955654e-05 1:66 2:88 3:79 4:1 5:3 6:1 7:1 8:2 9:1 10:1 #
-5.7181411557303651709005531955654e-05 1:69 2:83 3:73 4:2 5:3 6:1 7:2 8:2 9:1 10:1 #
5.7181411557303651709005531955654e-05 1:69 2:65 3:79 4:1 5:2 6:1 7:2 8:2 9:1 10:1 #
-5.7181411557303651709005531955654e-05 1:68 2:65 3:73 4:1 5:3 6:1 7:1 8:2 9:1 10:1 #
5.7181411557303651709005531955654e-05 1:66 2:88 3:79 4:1 5:3 6:1 7:1 8:2 9:1 10:1 #
5.7181411557303651709005531955654e-05 1:72 2:83 3:88 4:1 5:2 6:1 7:1 8:2 9:1 10:1 #
-5.7181411557303651709005531955654e-05 1:72 2:83 3:88 4:1 5:3 6:1 7:1 8:2 9:1 10:1 #
-5.7181411557303651709005531955654e-05 1:68 2:65 3:73 4:1 5:3 6:1 7:2 8:2 9:1 10:1 #
-3.6286440519006646354682743549347e-10 1:72 2:83 3:88 4:1 5:1 6:1 7:1 8:1 9:1 10:1 #
-2.0964779326954584293130068317623e-05 1:67 2:83 3:73 4:1 5:3 6:1 7:1 8:2 9:1 10:1 #
-5.7181411557303651709005531955654e-05 1:72 2:83 3:88 4:1 5:3 6:1 7:1 8:2 9:1 10:1 #
5.7181411557303651709005531955654e-05 1:68 2:65 3:73 4:2 5:2 6:1 7:2 8:2 9:1 10:1 #
-5.7181411557303651709005531955654e-05 1:68 2:65 3:73 4:2 5:2 6:1 7:2 8:2 9:1 10:1 #
-5.7181411557303651709005531955654e-05 1:70 2:75 3:73 4:2 5:2 6:3 7:2 8:2 9:1 10:1 #
5.7181411557303651709005531955654e-05 1:67 2:72 3:79 4:1 5:3 6:1 7:1 8:2 9:1 10:1 #
-5.0396253523067417734448980581874e-05 1:72 2:65 3:88 4:1 5:3 6:1 7:2 8:1 9:1 10:1 #
-5.7181411557303651709005531955654e-05 1:66 2:88 3:79 4:1 5:3 6:1 7:1 8:2 9:1 10:1 #
5.7181411557303651709005531955654e-05 1:69 2:65 3:79 4:1 5:2 6:1 7:2 8:2 9:1 10:1 #
5.7181411557303651709005531955654e-05 1:70 2:65 3:73 4:1 5:2 6:1 7:2 8:2 9:1 10:1 #
-5.7181411557303651709005531955654e-05 1:68 2:65 3:73 4:1 5:2 6:1 7:1 8:2 9:1 10:1 #
-5.7181411557303651709005531955654e-05 1:72 2:65 3:88 4:1 5:2 6:1 7:2 8:2 9:1 10:1 #
5.7181411557303651709005531955654e-05 1:66 2:88 3:79 4:1 5:3 6:1 7:1 8:2 9:1 10:1 #
-5.7181411557303651709005531955654e-05 1:66 2:88 3:79 4:1 5:3 6:1 7:1 8:2 9:1 10:1 #
5.7181411557303651709005531955654e-05 1:70 2:65 3:73 4:2 5:2 6:1 7:2 8:2 9:1 10:1 #
5.7181411557303651709005531955654e-05 1:72 2:83 3:88 4:1 5:2 6:1 7:1 8:2 9:1 10:1 #
-5.7181411557303651709005531955654e-05 1:67 2:65 3:73 4:1 5:2 6:1 7:2 8:2 9:1 10:1 #
-5.7181411557303651709005531955654e-05 1:66 2:88 3:79 4:1 5:1 6:1 7:1 8:2 9:1 10:1 #
5.7181411557303651709005531955654e-05 1:68 2:65 3:73 4:1 5:3 6:1 7:2 8:2 9:1 10:1 #
-5.7181411557303651709005531955654e-05 1:68 2:65 3:73 4:1 5:3 6:1 7:1 8:2 9:1 10:1 #
5.7181411557303651709005531955654e-05 1:67 2:83 3:79 4:1 5:2 6:1 7:2 8:2 9:1 10:1 #
-5.7181411557303651709005531955654e-05 1:72 2:83 3:88 4:1 5:3 6:1 7:2 8:2 9:1 10:1 #
-5.7181411557303651709005531955654e-05 1:68 2:65 3:73 4:1 5:3 6:1 7:2 8:2 9:1 10:1 #
5.7181411557303651709005531955654e-05 1:67 2:83 3:79 4:2 5:2 6:1 7:1 8:2 9:1 10:1 #
-2.8532403202907751817163362062502e-06 1:66 2:88 3:79 4:1 5:2 6:1 7:1 8:2 9:1 10:1 #
-2.8719255426024048460931226145476e-05 1:67 2:65 3:73 4:1 5:2 6:1 7:2 8:2 9:1 10:1 #
-5.7181411557303651709005531955654e-05 1:68 2:65 3:73 4:1 5:3 6:1 7:1 8:2 9:1 10:1 #
5.7181411557303651709005531955654e-05 1:67 2:83 3:79 4:1 5:3 6:1 7:2 8:2 9:1 10:1 #
-5.7181411557303651709005531955654e-05 1:66 2:88 3:79 4:1 5:3 6:1 7:1 8:2 9:1 10:1 #
5.7181411557303651709005531955654e-05 1:68 2:65 3:73 4:2 5:3 6:3 7:1 8:2 9:1 10:1 #
5.7181411557303651709005531955654e-05 1:70 2:65 3:73 4:2 5:2 6:1 7:2 8:2 9:1 10:1 #
-5.7181411557303651709005531955654e-05 1:66 2:88 3:79 4:1 5:3 6:1 7:1 8:2 9:1 10:1 #
5.7181411557303651709005531955654e-05 1:67 2:83 3:79 4:2 5:3 6:1 7:1 8:2 9:1 10:1 #
5.7181411557303651709005531955654e-05 1:68 2:83 3:79 4:1 5:3 6:1 7:1 8:2 9:1 10:1 #
-5.7181411557303651709005531955654e-05 1:68 2:65 3:73 4:1 5:3 6:1 7:2 8:2 9:1 10:1 #
5.7181411557303651709005531955654e-05 1:67 2:83 3:79 4:1 5:2 6:1 7:1 8:2 9:1 10:1 #
-5.7156294163362986182619351893663e-05 1:66 2:88 3:79 4:2 5:1 6:1 7:2 8:2 9:1 10:1 #
-5.7181411557303651709005531955654e-05 1:68 2:65 3:73 4:1 5:3 6:1 7:1 8:2 9:1 10:1 #
5.7181411557303651709005531955654e-05 1:67 2:83 3:79 4:1 5:2 6:1 7:1 8:2 9:1 10:1 #
-5.7181411557303651709005531955654e-05 1:72 2:83 3:88 4:2 5:2 6:1 7:1 8:2 9:1 10:1 #
5.7181411557303651709005531955654e-05 1:69 2:65 3:79 4:1 5:2 6:1 7:2 8:2 9:1 10:1 #
-5.7181411557303651709005531955654e-05 1:68 2:65 3:73 4:1 5:2 6:1 7:2 8:2 9:1 10:1 #
5.7181411557303651709005531955654e-05 1:67 2:83 3:79 4:1 5:3 6:1 7:1 8:2 9:1 10:1 #
5.7181411557303651709005531955654e-05 1:69 2:72 3:79 4:2 5:2 6:1 7:2 8:2 9:1 10:1 #
-5.7181411557303651709005531955654e-05 1:68 2:65 3:73 4:1 5:2 6:1 7:2 8:2 9:1 10:1 #
-1.825826242196626481018029153347e-06 1:68 2:82 3:73 4:1 5:3 6:1 7:1 8:2 9:1 10:1 #
5.7181411557303651709005531955654e-05 1:67 2:83 3:73 4:1 5:3 6:1 7:1 8:2 9:1 10:1 #
-5.7181411557303651709005531955654e-05 1:68 2:83 3:73 4:2 5:3 6:1 7:1 8:2 9:1 10:1 #
5.7181411557303651709005531955654e-05 1:70 2:65 3:73 4:1 5:2 6:1 7:2 8:2 9:2 10:1 #
-5.7181411557303651709005531955654e-05 1:68 2:65 3:73 4:1 5:3 6:1 7:1 8:2 9:1 10:1 #
5.7181411557303651709005531955654e-05 1:67 2:83 3:79 4:1 5:3 6:1 7:1 8:2 9:1 10:1 #
-5.7181411557303651709005531955654e-05 1:66 2:88 3:79 4:1 5:3 6:1 7:1 8:2 9:1 10:1 #
5.7181411557303651709005531955654e-05 1:70 2:65 3:73 4:2 5:3 6:1 7:2 8:2 9:2 10:1 #
-5.7181411557303651709005531955654e-05 1:68 2:65 3:73 4:1 5:3 6:1 7:2 8:2 9:1 10:1 #
-5.7181411557303651709005531955654e-05 1:69 2:83 3:73 4:2 5:2 6:1 7:2 8:2 9:1 10:1 #
5.7181411557303651709005531955654e-05 1:69 2:72 3:79 4:2 5:2 6:1 7:2 8:2 9:1 10:1 #
5.7181411557303651709005531955654e-05 1:68 2:83 3:79 4:1 5:2 6:1 7:1 8:2 9:1 10:1 #
5.7181411557303651709005531955654e-05 1:67 2:82 3:79 4:1 5:3 6:1 7:1 8:2 9:1 10:1 #
-5.7181411557303651709005531955654e-05 1:72 2:83 3:88 4:2 5:2 6:1 7:1 8:2 9:1 10:1 #
5.7181411557303651709005531955654e-05 1:69 2:65 3:73 4:2 5:3 6:3 7:2 8:2 9:1 10:1 #
-5.7181411557303651709005531955654e-05 1:68 2:65 3:73 4:1 5:3 6:1 7:2 8:2 9:1 10:1 #
-5.7181411557303651709005531955654e-05 1:68 2:82 3:73 4:2 5:3 6:2 7:2 8:2 9:1 10:1 #
5.7181411557303651709005531955654e-05 1:70 2:72 3:79 4:1 5:2 6:1 7:2 8:2 9:1 10:1 #
-5.7181411557303651709005531955654e-05 1:72 2:83 3:88 4:2 5:2 6:1 7:2 8:2 9:1 10:1 #
5.7181411557303651709005531955654e-05 1:69 2:72 3:73 4:1 5:3 6:1 7:2 8:2 9:1 10:1 #
-5.7026363315282324606414476875216e-05 1:68 2:65 3:73 4:1 5:2 6:1 7:1 8:2 9:1 10:1 #
-1.3209247047535344066204743285198e-05 1:68 2:65 3:73 4:1 5:2 6:1 7:2 8:2 9:1 10:1 #
5.7181411557303651709005531955654e-05 1:68 2:83 3:79 4:1 5:2 6:1 7:2 8:2 9:1 10:1 #
-5.7181411557303651709005531955654e-05 1:68 2:83 3:73 4:2 5:3 6:1 7:1 8:2 9:1 10:1 #
5.7181411557303651709005531955654e-05 1:68 2:75 3:73 4:2 5:2 6:1 7:2 8:2 9:1 10:1 #
-5.7181411557303651709005531955654e-05 1:69 2:83 3:73 4:1 5:2 6:1 7:2 8:2 9:1 10:1 #
-5.7181411557303651709005531955654e-05 1:68 2:83 3:73 4:2 5:2 6:1 7:2 8:2 9:1 10:1 #
5.7181411557303651709005531955654e-05 1:68 2:82 3:79 4:1 5:2 6:1 7:1 8:2 9:1 10:1 #
-5.7181411557303651709005531955654e-05 1:67 2:83 3:79 4:2 5:3 6:3 7:1 8:2 9:1 10:1 #
5.7181411557303651709005531955654e-05 1:70 2:75 3:73 4:1 5:2 6:1 7:2 8:2 9:1 10:1 #
-5.7181411557303651709005531955654e-05 1:68 2:65 3:73 4:1 5:2 6:1 7:2 8:2 9:1 10:1 #
5.7181411557303651709005531955654e-05 1:68 2:83 3:79 4:2 5:3 6:1 7:2 8:2 9:1 10:1 #
-1.7746547875674423266900703310966e-05 1:66 2:88 3:79 4:1 5:2 6:1 7:2 8:2 9:1 10:1 #
5.7181411557303651709005531955654e-05 1:69 2:75 3:73 4:2 5:3 6:1 7:2 8:2 9:2 10:1 #
5.7181411557303651709005531955654e-05 1:67 2:82 3:79 4:1 5:2 6:1 7:2 8:2 9:1 10:1 #
-4.8716501240192444655008330300916e-05 1:72 2:83 3:88 4:1 5:3 6:1 7:2 8:2 9:1 10:1 #
-5.7181411557303651709005531955654e-05 1:68 2:65 3:73 4:1 5:2 6:1 7:2 8:2 9:1 10:1 #
5.7181411557303651709005531955654e-05 1:68 2:83 3:79 4:1 5:2 6:1 7:2 8:2 9:1 10:1 #
-5.7181411557303651709005531955654e-05 1:66 2:88 3:79 4:1 5:3 6:1 7:1 8:2 9:1 10:1 #
5.7181411557303651709005531955654e-05 1:70 2:75 3:73 4:2 5:2 6:1 7:2 8:2 9:2 10:1 #
5.7181411557303651709005531955654e-05 1:68 2:82 3:79 4:1 5:3 6:1 7:1 8:2 9:1 10:1 #
-5.7181411557303651709005531955654e-05 1:68 2:83 3:73 4:1 5:3 6:1 7:2 8:2 9:1 10:1 #
-5.7181411557303651709005531955654e-05 1:69 2:83 3:73 4:1 5:2 6:1 7:2 8:2 9:1 10:1 #
5.7181411557303651709005531955654e-05 1:68 2:82 3:79 4:1 5:3 6:1 7:1 8:2 9:1 10:1 #
-5.7181411557303651709005531955654e-05 1:72 2:83 3:88 4:1 5:3 6:1 7:1 8:2 9:1 10:1 #
5.7181411557303651709005531955654e-05 1:67 2:82 3:73 4:1 5:2 6:1 7:2 8:2 9:1 10:1 #
5.7181411557303651709005531955654e-05 1:68 2:83 3:79 4:1 5:3 6:1 7:1 8:2 9:1 10:1 #
-5.7181411557303651709005531955654e-05 1:67 2:83 3:73 4:2 5:2 6:1 7:2 8:2 9:1 10:1 #
5.7181411557303651709005531955654e-05 1:68 2:82 3:79 4:1 5:3 6:1 7:1 8:2 9:1 10:1 #
-5.7181411557303651709005531955654e-05 1:68 2:83 3:73 4:1 5:3 6:1 7:1 8:2 9:1 10:1 #
5.7181411557303651709005531955654e-05 1:67 2:83 3:79 4:2 5:2 6:3 7:2 8:2 9:1 10:1 #
5.7181411557303651709005531955654e-05 1:68 2:83 3:79 4:2 5:3 6:2 7:1 8:2 9:1 10:1 #
-5.7181411557303651709005531955654e-05 1:66 2:88 3:79 4:1 5:3 6:1 7:1 8:2 9:1 10:1 #
5.7181411557303651709005531955654e-05 1:70 2:75 3:67 4:2 5:3 6:3 7:2 8:2 9:2 10:1 #
-5.7181411557303651709005531955654e-05 1:68 2:65 3:73 4:1 5:2 6:1 7:1 8:2 9:1 10:1 #
5.7181411557303651709005531955654e-05 1:68 2:83 3:79 4:1 5:3 6:1 7:1 8:2 9:1 10:1 #
-5.7181411557303651709005531955654e-05 1:69 2:83 3:73 4:1 5:2 6:1 7:2 8:2 9:1 10:1 #
-5.7181411557303651709005531955654e-05 1:66 2:88 3:79 4:1 5:3 6:1 7:1 8:2 9:1 10:1 #
5.7181411557303651709005531955654e-05 1:67 2:82 3:73 4:1 5:3 6:1 7:1 8:2 9:1 10:1 #
-5.7181411557303651709005531955654e-05 1:68 2:83 3:73 4:1 5:3 6:1 7:1 8:2 9:1 10:1 #
-5.7181411557303651709005531955654e-05 1:68 2:83 3:79 4:2 5:2 6:3 7:2 8:2 9:1 10:1 #
5.7181411557303651709005531955654e-05 1:67 2:83 3:73 4:1 5:3 6:1 7:1 8:2 9:1 10:1 #
5.7181411557303651709005531955654e-05 1:68 2:82 3:73 4:1 5:3 6:1 7:1 8:2 9:1 10:1 #
-5.7181411557303651709005531955654e-05 1:68 2:83 3:73 4:1 5:3 6:1 7:1 8:2 9:1 10:1 #
5.7181411557303651709005531955654e-05 1:68 2:82 3:73 4:1 5:3 6:1 7:1 8:2 9:1 10:1 #
-5.7181411557303651709005531955654e-05 1:68 2:83 3:73 4:1 5:3 6:1 7:1 8:2 9:1 10:1 #
5.7181411557303651709005531955654e-05 1:68 2:83 3:73 4:2 5:2 6:1 7:2 8:2 9:1 10:1 #
-5.7181411557303651709005531955654e-05 1:68 2:83 3:73 4:1 5:3 6:1 7:1 8:2 9:1 10:1 #
5.7181411557303651709005531955654e-05 1:68 2:83 3:73 4:1 5:3 6:1 7:2 8:2 9:1 10:1 #
-5.7181411557303651709005531955654e-05 1:68 2:83 3:73 4:1 5:3 6:1 7:2 8:2 9:1 10:1 #
5.7181411557303651709005531955654e-05 1:68 2:83 3:73 4:1 5:3 6:1 7:1 8:2 9:1 10:1 #
-5.7181411557303651709005531955654e-05 1:68 2:82 3:73 4:2 5:2 6:1 7:1 8:2 9:1 10:1 #
-5.7181411557303651709005531955654e-05 1:68 2:83 3:73 4:1 5:3 6:1 7:2 8:2 9:1 10:1 #
5.7181411557303651709005531955654e-05 1:70 2:82 3:73 4:1 5:2 6:1 7:2 8:2 9:1 10:1 #
5.7181411557303651709005531955654e-05 1:68 2:82 3:73 4:2 5:3 6:1 7:2 8:2 9:1 10:1 #
-5.7181411557303651709005531955654e-05 1:68 2:82 3:73 4:2 5:2 6:1 7:2 8:2 9:1 10:1 #
5.7181411557303651709005531955654e-05 1:70 2:83 3:73 4:1 5:3 6:1 7:2 8:2 9:1 10:1 #
-5.7181411557303651709005531955654e-05 1:68 2:82 3:73 4:1 5:3 6:1 7:2 8:2 9:1 10:1 #
-2.2147326332322414543796185171232e-06 1:68 2:82 3:73 4:1 5:3 6:1 7:1 8:2 9:1 10:1 #
-7.0351861976248805663480823113787e-06 1:68 2:72 3:73 4:2 5:3 6:1 7:2 8:2 9:1 10:1 #
-1.9776273840754754473891807720065e-08 1:70 2:83 3:79 4:2 5:2 6:1 7:1 8:2 9:1 10:1 #
-9.0266540030889668572156026016273e-06 1:68 2:83 3:73 4:1 5:2 6:1 7:2 8:2 9:1 10:1 #
-3.3419529899150843960109469321651e-06 1:68 2:65 3:79 4:2 5:2 6:3 7:2 8:2 9:1 10:1 #
-4.6505687296083397797019642894156e-05 1:69 2:82 3:79 4:1 5:3 6:1 7:2 8:2 9:2 10:1 #
-2.1318685150539806727465474978089e-08 1:68 2:83 3:79 4:1 5:1 6:3 7:2 8:2 9:1 10:1 #
-1.7042833984348693121546602924354e-10 1:72 2:65 3:88 4:1 5:2 6:1 7:2 8:2 9:1 10:1 #
